    0.514133013798755911E+02    0.248551528682224541E-01   -0.239541547815769063E+01   -0.233765388217699144E+01   -0.236922860036782595E+03
    0.635705325212323515E+02    0.270787944721372423E-01   -0.253451604377207396E+01   -0.237497335772712725E+01   -0.236164806393610263E+03
    0.562274581401883680E+02    0.228231777231764701E-01   -0.244890481556077555E+01   -0.231833837177429114E+01   -0.235471880598155110E+03
    0.716521195418237653E+02    0.274911259732597141E-01   -0.216385552274791104E+01   -0.235846230494802178E+01   -0.235449406302115761E+03
    0.620852507040873860E+02    0.198596222750856560E-01   -0.233979176763461671E+01   -0.248527340732972846E+01   -0.235394200374906063E+03
    0.730096429426177451E+02    0.291427177671116089E-01   -0.252347689851459434E+01   -0.223956241125206645E+01   -0.235150741147890955E+03
    0.710294242285141735E+02    0.164271323457122580E-01   -0.249821906819257666E+01   -0.215166459006106159E+01   -0.235070415748165317E+03
    0.651284450027329029E+02    0.275722858044512853E-01   -0.219168520004097811E+01   -0.237990993128240635E+01   -0.234713214716086981E+03
    0.656391410197975205E+02    0.271903780223333967E-01   -0.220940453280623750E+01   -0.237038513283805852E+01   -0.234019958503232090E+03
    0.660963368753309055E+02    0.274168931821390273E-01   -0.223907422426657110E+01   -0.234749884583924562E+01   -0.233693783731178712E+03
    0.655176457361816205E+02    0.201980668504855750E-01   -0.240276626431392692E+01   -0.238851110258909527E+01   -0.230963592692573286E+03
    0.656052872294644089E+02    0.204152736220366490E-01   -0.248915449653409349E+01   -0.238590293218634208E+01   -0.232626088411971836E+03
    0.660240023206350628E+02    0.211989738332029193E-01   -0.244879127672982877E+01   -0.242353727056021473E+01   -0.231893587978981515E+03
    0.666301962949722224E+02    0.207229206165310681E-01   -0.242913206085655098E+01   -0.243455155361478237E+01   -0.231602417438646199E+03
    0.646029310800675773E+02    0.204981733609213047E-01   -0.238701341185223992E+01   -0.228902076214750272E+01   -0.232779150031630707E+03
    0.639522154274986505E+02    0.233819128520413831E-01   -0.242634702234487198E+01   -0.240304079654419311E+01   -0.231790407952289456E+03
    0.689319072529865764E+02    0.152764215691880614E-01   -0.240538059833838824E+01   -0.236633862032981934E+01   -0.232726005416955445E+03
    0.693799822476431416E+02    0.189831046571030254E-01   -0.241277808887065204E+01   -0.236313894583134054E+01   -0.230553919070636255E+03
    0.696283568842798246E+02    0.169284222460780592E-01   -0.248293787774479258E+01   -0.234097322563558041E+01   -0.233063181446973545E+03
    0.681117919878377620E+02    0.171330169585633477E-01   -0.241190551360998295E+01   -0.241373246860741819E+01   -0.231617036255578000E+03
    0.659543603988453384E+02    0.176116250685544214E-01   -0.233207798828840440E+01   -0.235418381293145274E+01   -0.232492536719823391E+03
    0.663604817564398388E+02    0.182813732898659265E-01   -0.234950654715424756E+01   -0.238934523985693481E+01   -0.231464306113361516E+03
    0.678721085485391313E+02    0.204110618520571482E-01   -0.233934591504762990E+01   -0.239931551245166386E+01   -0.229728739624169947E+03
    0.685358754059200237E+02    0.201901949078460499E-01   -0.235787277143201957E+01   -0.236650064424673579E+01   -0.229632312990240933E+03
    0.690528438557986419E+02    0.223520232023724057E-01   -0.240149901456785031E+01   -0.241493494464614100E+01   -0.228859146301262683E+03
    0.696578116966906862E+02    0.210849974973330162E-01   -0.239621157003819452E+01   -0.236303351814986140E+01   -0.229582300164360618E+03
    0.666825695138636263E+02    0.203588420905938712E-01   -0.242796217879889964E+01   -0.243972423356742008E+01   -0.231851419619461183E+03
    0.695439407976537041E+02    0.220658073872224830E-01   -0.253191186133743917E+01   -0.240458661758459336E+01   -0.232233131571870331E+03
    0.694584705990531575E+02    0.222961994253491683E-01   -0.242584948545836543E+01   -0.244478956384635948E+01   -0.229641842016688116E+03
    0.692371258560763323E+02    0.217989067001908426E-01   -0.243223795567833756E+01   -0.238719690264749573E+01   -0.229794587518776524E+03
    0.687036417813659739E+02    0.215790187854488086E-01   -0.240602115323735166E+01   -0.230593257971085652E+01   -0.230745778104837882E+03
    0.665240351231157945E+02    0.206571451154866012E-01   -0.235503895525493689E+01   -0.241487602494007758E+01   -0.230209371832990655E+03
    0.695749848962834108E+02    0.211340512153774668E-01   -0.238473124252774671E+01   -0.232198256975057182E+01   -0.230232174565560484E+03
    0.690133122249172004E+02    0.210853326094125430E-01   -0.242257154069044311E+01   -0.241644574793783073E+01   -0.229909641186709820E+03
    0.735157455726990747E+02    0.190919957373895700E-01   -0.233795457898123615E+01   -0.240092960884292594E+01   -0.228815129240357095E+03
    0.735157455726990747E+02    0.190919957373895700E-01   -0.233795457898123615E+01   -0.240092960884292594E+01   -0.228815129240357095E+03
    0.729667795438059557E+02    0.189551471009836055E-01   -0.229541043257883493E+01   -0.241324000082667212E+01   -0.229823715601013618E+03
    0.749843117895568696E+02    0.206130245648232582E-01   -0.233596600184678671E+01   -0.240611641412591393E+01   -0.227090430106929716E+03
    0.749843117895568696E+02    0.206130245648232582E-01   -0.233596600184678671E+01   -0.240611641412591393E+01   -0.227090430106929716E+03
    0.749843117895568696E+02    0.206130245648232582E-01   -0.233596600184678671E+01   -0.240611641412591393E+01   -0.227090430106929716E+03
    0.749843117895568696E+02    0.206130245648232582E-01   -0.233596600184678671E+01   -0.240611641412591393E+01   -0.227090430106929716E+03
    0.749843117895568696E+02    0.206130245648232582E-01   -0.233596600184678671E+01   -0.240611641412591393E+01   -0.227090430106929716E+03
    0.749843117895568696E+02    0.206130245648232582E-01   -0.233596600184678671E+01   -0.240611641412591393E+01   -0.227090430106929716E+03
    0.749843117895568696E+02    0.206130245648232582E-01   -0.233596600184678671E+01   -0.240611641412591393E+01   -0.227090430106929716E+03
    0.744343526430713638E+02    0.219915454721911971E-01   -0.225774185324739518E+01   -0.238602795150689939E+01   -0.228900356215790140E+03
    0.739751421832700800E+02    0.214735785125700421E-01   -0.232232429540749097E+01   -0.242766713523732847E+01   -0.226938430823211149E+03
    0.739751421832700800E+02    0.214735785125700421E-01   -0.232232429540749097E+01   -0.242766713523732847E+01   -0.226938430823211149E+03
    0.739751421832700800E+02    0.214735785125700421E-01   -0.232232429540749097E+01   -0.242766713523732847E+01   -0.226938430823211149E+03
    0.739751421832700800E+02    0.214735785125700421E-01   -0.232232429540749097E+01   -0.242766713523732847E+01   -0.226938430823211149E+03
    0.739751421832700800E+02    0.214735785125700421E-01   -0.232232429540749097E+01   -0.242766713523732847E+01   -0.226938430823211149E+03
    0.739751421832700800E+02    0.214735785125700421E-01   -0.232232429540749097E+01   -0.242766713523732847E+01   -0.226938430823211149E+03
    0.739751421832700800E+02    0.214735785125700421E-01   -0.232232429540749097E+01   -0.242766713523732847E+01   -0.226938430823211149E+03
    0.739751421832700800E+02    0.214735785125700421E-01   -0.232232429540749097E+01   -0.242766713523732847E+01   -0.226938430823211149E+03
    0.745086240967272033E+02    0.216801040564459993E-01   -0.229087903724104169E+01   -0.240355121408139727E+01   -0.227622126662208103E+03
    0.745086240967272033E+02    0.216801040564459993E-01   -0.229087903724104169E+01   -0.240355121408139727E+01   -0.227622126662208103E+03
    0.745086240967272033E+02    0.216801040564459993E-01   -0.229087903724104169E+01   -0.240355121408139727E+01   -0.227622126662208103E+03
    0.745086240967272033E+02    0.216801040564459993E-01   -0.229087903724104169E+01   -0.240355121408139727E+01   -0.227622126662208103E+03
    0.708281143490718961E+02    0.223237418399513006E-01   -0.239849048349713012E+01   -0.241582951132625645E+01   -0.228022154540606408E+03
    0.708281143490718961E+02    0.223237418399513006E-01   -0.239849048349713012E+01   -0.241582951132625645E+01   -0.228022154540606408E+03
    0.708281143490718961E+02    0.223237418399513006E-01   -0.239849048349713012E+01   -0.241582951132625645E+01   -0.228022154540606408E+03
    0.715964783999661591E+02    0.194079723939074300E-01   -0.236386371138346041E+01   -0.238743108667867077E+01   -0.229153214800576080E+03
    0.717495536781877092E+02    0.206805058771803232E-01   -0.238466359347339463E+01   -0.238211507559470981E+01   -0.228696558924180948E+03
    0.707821973827194597E+02    0.218937981579494442E-01   -0.236419107310102916E+01   -0.233731456409269933E+01   -0.229680179929290347E+03
    0.716229797584211667E+02    0.193302994427625684E-01   -0.230019020214343772E+01   -0.238928023946762291E+01   -0.230030214244311566E+03
    0.714553709268224111E+02    0.220451805207598182E-01   -0.238119254356082211E+01   -0.236083318632269012E+01   -0.228548383323218474E+03
    0.714553709268224111E+02    0.220451805207598182E-01   -0.238119254356082211E+01   -0.236083318632269012E+01   -0.228548383323218474E+03
    0.693877346556105437E+02    0.214218826259113503E-01   -0.237224567707784217E+01   -0.243129341646983077E+01   -0.228985451466550018E+03
    0.695957889682821218E+02    0.205168506220853100E-01   -0.234443759749479197E+01   -0.240628645509986061E+01   -0.229286791450917860E+03
    0.707325437564727224E+02    0.217259968492589245E-01   -0.236297745069611587E+01   -0.244040472012951160E+01   -0.228310742889388024E+03
    0.707325437564727224E+02    0.217259968492589245E-01   -0.236297745069611587E+01   -0.244040472012951160E+01   -0.228310742889388024E+03
    0.717534887082739345E+02    0.213727311483101548E-01   -0.230213076738535483E+01   -0.241042194088045081E+01   -0.228396028938173998E+03
    0.717534887082739345E+02    0.213727311483101548E-01   -0.230213076738535483E+01   -0.241042194088045081E+01   -0.228396028938173998E+03
    0.730582108700477875E+02    0.192065158017210059E-01   -0.235915556781413560E+01   -0.240853975955156763E+01   -0.228762500979208227E+03
    0.730582108700477875E+02    0.192065158017210059E-01   -0.235915556781413560E+01   -0.240853975955156763E+01   -0.228762500979208227E+03
    0.727631207470007553E+02    0.194368024649006835E-01   -0.234160169422620656E+01   -0.240914802819251594E+01   -0.228793764396418368E+03
    0.692745300352291054E+02    0.205502809746921089E-01   -0.234284029377527148E+01   -0.235540003914766505E+01   -0.229529128342839755E+03
    0.689005743305614828E+02    0.200749530111061537E-01   -0.230143421011112315E+01   -0.240623113918107023E+01   -0.230198645742244338E+03
    0.710602506929062514E+02    0.195923907567850837E-01   -0.230386400489234333E+01   -0.237838566778512606E+01   -0.229982627927049663E+03
    0.700764258108373497E+02    0.210102385429138117E-01   -0.234450371632960231E+01   -0.244082479874568348E+01   -0.228908351836127054E+03
    0.709139680649768280E+02    0.216497044626198995E-01   -0.239979813361464389E+01   -0.243023151885072197E+01   -0.228462645940904963E+03
    0.697714955320427634E+02    0.202817926850359237E-01   -0.233106125961161359E+01   -0.245266821867863838E+01   -0.229765968554845358E+03
    0.699791980816808632E+02    0.198083413543161495E-01   -0.232054955743658420E+01   -0.244091614335548668E+01   -0.229976101525560665E+03
    0.718483104566920190E+02    0.180612336200157500E-01   -0.234325511970324385E+01   -0.244313631663378406E+01   -0.230217262211187204E+03
    0.686521421188500938E+02    0.199264656384405860E-01   -0.236941482254100722E+01   -0.250527533982271233E+01   -0.231049070613536770E+03
    0.698574253909010849E+02    0.217664466895001567E-01   -0.238075895579646302E+01   -0.246065375477117332E+01   -0.229043931541351810E+03
    0.738997129814512590E+02    0.179854457087276452E-01   -0.238073615156796992E+01   -0.244624176060306109E+01   -0.229612130066693339E+03
    0.711459466712875184E+02    0.202159035649057683E-01   -0.239805410815123166E+01   -0.245565063618548285E+01   -0.229411681609050589E+03
    0.726989832756370902E+02    0.220878836008040584E-01   -0.238050456544479516E+01   -0.240540045351445197E+01   -0.227147823941711380E+03
    0.726989832756370902E+02    0.220878836008040584E-01   -0.238050456544479516E+01   -0.240540045351445197E+01   -0.227147823941711380E+03
    0.726989832756370902E+02    0.220878836008040584E-01   -0.238050456544479516E+01   -0.240540045351445197E+01   -0.227147823941711380E+03
    0.726989832756370902E+02    0.220878836008040584E-01   -0.238050456544479516E+01   -0.240540045351445197E+01   -0.227147823941711380E+03
    0.726989832756370902E+02    0.220878836008040584E-01   -0.238050456544479516E+01   -0.240540045351445197E+01   -0.227147823941711380E+03
    0.726989832756370902E+02    0.220878836008040584E-01   -0.238050456544479516E+01   -0.240540045351445197E+01   -0.227147823941711380E+03
    0.733602855631243926E+02    0.214131293934029451E-01   -0.240278132776455022E+01   -0.238571104433462944E+01   -0.227832006137824749E+03
    0.733602855631243926E+02    0.214131293934029451E-01   -0.240278132776455022E+01   -0.238571104433462944E+01   -0.227832006137824749E+03
    0.733602855631243926E+02    0.214131293934029451E-01   -0.240278132776455022E+01   -0.238571104433462944E+01   -0.227832006137824749E+03
    0.733925018819576849E+02    0.203993193475825070E-01   -0.238991737027797946E+01   -0.242713857402630451E+01   -0.227924868290544566E+03
    0.733925018819576849E+02    0.203993193475825070E-01   -0.238991737027797946E+01   -0.242713857402630451E+01   -0.227924868290544566E+03
    0.733925018819576849E+02    0.203993193475825070E-01   -0.238991737027797946E+01   -0.242713857402630451E+01   -0.227924868290544566E+03
    0.714994951124532747E+02    0.218940354427059579E-01   -0.240839264296531486E+01   -0.248008447331974269E+01   -0.228555864425728004E+03
    0.714994951124532747E+02    0.218940354427059579E-01   -0.240839264296531486E+01   -0.248008447331974269E+01   -0.228555864425728004E+03
    0.725988536199159853E+02    0.201561438851999911E-01   -0.240820148598574235E+01   -0.245193727114633786E+01   -0.228925178902130398E+03
    0.725727135110159622E+02    0.220499564768846766E-01   -0.238987422300828012E+01   -0.243326090196079470E+01   -0.227486150880252666E+03
    0.725727135110159622E+02    0.220499564768846766E-01   -0.238987422300828012E+01   -0.243326090196079470E+01   -0.227486150880252666E+03
    0.725727135110159622E+02    0.220499564768846766E-01   -0.238987422300828012E+01   -0.243326090196079470E+01   -0.227486150880252666E+03
    0.725727135110159622E+02    0.220499564768846766E-01   -0.238987422300828012E+01   -0.243326090196079470E+01   -0.227486150880252666E+03
    0.735438351966183745E+02    0.197946926168540531E-01   -0.236033901508928423E+01   -0.245214207413940155E+01   -0.228471148464904076E+03
    0.735438351966183745E+02    0.197946926168540531E-01   -0.236033901508928423E+01   -0.245214207413940155E+01   -0.228471148464904076E+03
    0.726996980220665137E+02    0.202200574824216092E-01   -0.237936418543681683E+01   -0.248654272207638272E+01   -0.228703996480221178E+03
    0.728893856899030510E+02    0.202787969118494830E-01   -0.236675715080167759E+01   -0.245948031980113457E+01   -0.228491161224993249E+03
    0.728893856899030510E+02    0.202787969118494830E-01   -0.236675715080167759E+01   -0.245948031980113457E+01   -0.228491161224993249E+03
    0.715125236275439420E+02    0.210465678300847427E-01   -0.240764264238637571E+01   -0.251095982630859504E+01   -0.229613578793012550E+03
    0.719720564995111829E+02    0.208635643893215345E-01   -0.240243265061079114E+01   -0.252167583482053903E+01   -0.230172639412972785E+03
    0.730731429929916203E+02    0.201278176064362720E-01   -0.244954869538512687E+01   -0.247469345714697475E+01   -0.229730257625637392E+03
    0.748710831899248035E+02    0.187549774297950979E-01   -0.234598836739552086E+01   -0.243653360788906870E+01   -0.228479218289210138E+03
    0.736175134942245251E+02    0.201060035597711677E-01   -0.243873624775402620E+01   -0.251146516995425273E+01   -0.229392411304106133E+03
    0.708094405788775560E+02    0.183037392448955720E-01   -0.232440456541817797E+01   -0.234615393690782659E+01   -0.230431968068762330E+03
    0.739743216319018586E+02    0.175545684497550591E-01   -0.241999898690107784E+01   -0.238096802330295088E+01   -0.229821724089562650E+03
    0.740554948053215583E+02    0.170594153904624346E-01   -0.237881166901836627E+01   -0.241206312439501414E+01   -0.229718520681902788E+03
    0.709763047360678883E+02    0.180566264581794797E-01   -0.242098740305828519E+01   -0.236927851947170254E+01   -0.230507502278881390E+03
    0.709241461317845108E+02    0.193172582280960771E-01   -0.241859423777743476E+01   -0.238463076014729358E+01   -0.230110228651955282E+03
    0.737809008183559172E+02    0.160812430683439089E-01   -0.236923561672487848E+01   -0.237243366223615570E+01   -0.230310489464070969E+03
    0.689477401542841335E+02    0.162951323307645446E-01   -0.233672628310225061E+01   -0.236005512609583690E+01   -0.232301800441566655E+03
    0.738249148857396307E+02    0.177649303910034639E-01   -0.239277109455455683E+01   -0.242599686327779729E+01   -0.229623252971990496E+03
    0.731026784551002038E+02    0.205255948856845824E-01   -0.237393187951766205E+01   -0.232760418544353520E+01   -0.229444466929213917E+03
    0.737182910164768543E+02    0.183289596057645172E-01   -0.235281428654911462E+01   -0.235472360729026464E+01   -0.229243460385698853E+03
    0.724565015805206372E+02    0.178298552129593536E-01   -0.236556247107107076E+01   -0.235843745548899353E+01   -0.229611657236757338E+03
    0.730129791329763549E+02    0.189689922070707361E-01   -0.234484049420465279E+01   -0.233570038114570977E+01   -0.230025839592039432E+03
    0.736883624317621582E+02    0.156807552004125071E-01   -0.230274815524026977E+01   -0.237962073682917818E+01   -0.232005286864903326E+03
    0.730793690236475868E+02    0.198851272839528290E-01   -0.243503984035712318E+01   -0.235140026914244604E+01   -0.229538716372607126E+03
    0.730491963093062253E+02    0.178657841154301646E-01   -0.236975153942904759E+01   -0.231847824134406499E+01   -0.230707158383835662E+03
    0.718548080829181117E+02    0.206695938921736821E-01   -0.239152361840800332E+01   -0.234146965942060170E+01   -0.229172008144503422E+03
    0.734930715596454860E+02    0.186846161549827916E-01   -0.240885128226875489E+01   -0.238441243239750911E+01   -0.229272034940658870E+03
    0.705908594632387292E+02    0.183633701078553119E-01   -0.234240419374858355E+01   -0.241301085390070158E+01   -0.230050830510694311E+03
    0.745815314379246246E+02    0.217892587035583077E-01   -0.241618857167751155E+01   -0.246592979181928129E+01   -0.227288699304115738E+03
    0.745815314379246246E+02    0.217892587035583077E-01   -0.241618857167751155E+01   -0.246592979181928129E+01   -0.227288699304115738E+03
    0.745815314379246246E+02    0.217892587035583077E-01   -0.241618857167751155E+01   -0.246592979181928129E+01   -0.227288699304115738E+03
    0.745815314379246246E+02    0.217892587035583077E-01   -0.241618857167751155E+01   -0.246592979181928129E+01   -0.227288699304115738E+03
    0.745815314379246246E+02    0.217892587035583077E-01   -0.241618857167751155E+01   -0.246592979181928129E+01   -0.227288699304115738E+03
    0.745815314379246246E+02    0.217892587035583077E-01   -0.241618857167751155E+01   -0.246592979181928129E+01   -0.227288699304115738E+03
    0.749453376752770595E+02    0.210351306756491087E-01   -0.240768014412780351E+01   -0.245560198155043308E+01   -0.227508285247624769E+03
    0.749453376752770595E+02    0.210351306756491087E-01   -0.240768014412780351E+01   -0.245560198155043308E+01   -0.227508285247624769E+03
    0.749453376752770595E+02    0.210351306756491087E-01   -0.240768014412780351E+01   -0.245560198155043308E+01   -0.227508285247624769E+03
    0.749453376752770595E+02    0.210351306756491087E-01   -0.240768014412780351E+01   -0.245560198155043308E+01   -0.227508285247624769E+03
    0.729344206127378811E+02    0.222632167476063438E-01   -0.241215955907863133E+01   -0.250317933019777827E+01   -0.228945322534917352E+03
    0.744582221179779111E+02    0.219741867027766075E-01   -0.243256865418639956E+01   -0.248795583112993146E+01   -0.227848822680218547E+03
    0.744582221179779111E+02    0.219741867027766075E-01   -0.243256865418639956E+01   -0.248795583112993146E+01   -0.227848822680218547E+03
    0.744582221179779111E+02    0.219741867027766075E-01   -0.243256865418639956E+01   -0.248795583112993146E+01   -0.227848822680218547E+03
    0.744353525108216303E+02    0.202000500632342830E-01   -0.242355204752715014E+01   -0.248281599216119497E+01   -0.228556865742932843E+03
    0.739879971029201471E+02    0.200845871376634615E-01   -0.234240759045470526E+01   -0.249167914413183667E+01   -0.228342546733896484E+03
    0.739879971029201471E+02    0.200845871376634615E-01   -0.234240759045470526E+01   -0.249167914413183667E+01   -0.228342546733896484E+03
    0.745464020105177667E+02    0.219844662758716738E-01   -0.240112293145978395E+01   -0.255552100114220604E+01   -0.230575128720732920E+03
    0.706436193601382172E+02    0.184389601692701403E-01   -0.245513599937923832E+01   -0.247684451541825901E+01   -0.232528017688773105E+03
    0.731507934535349023E+02    0.206791443053943903E-01   -0.242895273904474118E+01   -0.237704402434685225E+01   -0.228901593229660563E+03
    0.742879192652658702E+02    0.182832039944356740E-01   -0.248078488041401934E+01   -0.246462915072318944E+01   -0.231247672143156393E+03
    0.748793921080813902E+02    0.166387409473560260E-01   -0.245441211648662083E+01   -0.242418165254245732E+01   -0.230889885140805717E+03
    0.725147546769760112E+02    0.161051578842679108E-01   -0.245849561400458150E+01   -0.243047222709183330E+01   -0.232031939872894299E+03
    0.738134325424682345E+02    0.205028365248595933E-01   -0.248567864194354105E+01   -0.246322171506078114E+01   -0.230127634557724463E+03
    0.726426880716141454E+02    0.202878400328073139E-01   -0.242564803465173462E+01   -0.239345457584596044E+01   -0.229034548308499978E+03
    0.712933421040685289E+02    0.216735986469171853E-01   -0.247758490734266346E+01   -0.237731947388240306E+01   -0.230046566809662153E+03
    0.712494946657688786E+02    0.198181664304810483E-01   -0.254071426434414249E+01   -0.241063918376624642E+01   -0.232383012930010409E+03
    0.735319629609628009E+02    0.207729864253560145E-01   -0.254609871314130798E+01   -0.243160344771651982E+01   -0.231424292030770744E+03
    0.748415537108629110E+02    0.205515936667018326E-01   -0.250430585814166973E+01   -0.240522009361514932E+01   -0.229491722158333999E+03
    0.721668920699871990E+02    0.212517289634603541E-01   -0.244145040507787225E+01   -0.237148699807561236E+01   -0.229301860295463911E+03
    0.726515548904981046E+02    0.218334947892620257E-01   -0.242640234694776291E+01   -0.240893582441919740E+01   -0.227912686219360864E+03
    0.726515548904981046E+02    0.218334947892620257E-01   -0.242640234694776291E+01   -0.240893582441919740E+01   -0.227912686219360864E+03
    0.726515548904981046E+02    0.218334947892620257E-01   -0.242640234694776291E+01   -0.240893582441919740E+01   -0.227912686219360864E+03
    0.724031719155024120E+02    0.218033415393513834E-01   -0.241965820119054964E+01   -0.243036451572157031E+01   -0.228127232180037055E+03
    0.724031719155024120E+02    0.218033415393513834E-01   -0.241965820119054964E+01   -0.243036451572157031E+01   -0.228127232180037055E+03
    0.724031719155024120E+02    0.218033415393513834E-01   -0.241965820119054964E+01   -0.243036451572157031E+01   -0.228127232180037055E+03
    0.733560538248126477E+02    0.227120042410028436E-01   -0.245206225096380592E+01   -0.249337503712240949E+01   -0.228873564779247374E+03
    0.725171766252155123E+02    0.227999328714603919E-01   -0.239423849347901285E+01   -0.243462445455217180E+01   -0.227358636138044460E+03
    0.725171766252155123E+02    0.227999328714603919E-01   -0.239423849347901285E+01   -0.243462445455217180E+01   -0.227358636138044460E+03
    0.725171766252155123E+02    0.227999328714603919E-01   -0.239423849347901285E+01   -0.243462445455217180E+01   -0.227358636138044460E+03
    0.725171766252155123E+02    0.227999328714603919E-01   -0.239423849347901285E+01   -0.243462445455217180E+01   -0.227358636138044460E+03
    0.725171766252155123E+02    0.227999328714603919E-01   -0.239423849347901285E+01   -0.243462445455217180E+01   -0.227358636138044460E+03
    0.708314781770946951E+02    0.223237880673866212E-01   -0.243419506449880885E+01   -0.252263318313313434E+01   -0.231138254713461123E+03
    0.734541588116874209E+02    0.224407973300256615E-01   -0.242175921311530562E+01   -0.238111504428843901E+01   -0.227611956436334879E+03
    0.734541588116874209E+02    0.224407973300256615E-01   -0.242175921311530562E+01   -0.238111504428843901E+01   -0.227611956436334879E+03
    0.734541588116874209E+02    0.224407973300256615E-01   -0.242175921311530562E+01   -0.238111504428843901E+01   -0.227611956436334879E+03
    0.734541588116874209E+02    0.224407973300256615E-01   -0.242175921311530562E+01   -0.238111504428843901E+01   -0.227611956436334879E+03
    0.715581004411893389E+02    0.223544195655454997E-01   -0.245289687338563622E+01   -0.243883672388581063E+01   -0.229167614105488440E+03
    0.735172618018602861E+02    0.202601338000554659E-01   -0.250063721763137004E+01   -0.245407932943727758E+01   -0.230781687220034826E+03
    0.731101649790681449E+02    0.238491886220143813E-01   -0.259423894539339051E+01   -0.246960281501993606E+01   -0.232673631097219982E+03
    0.734767125541792296E+02    0.219761311962745100E-01   -0.250372342395600223E+01   -0.241110970419326787E+01   -0.229278399569522833E+03
    0.721578685459183760E+02    0.225316424557092491E-01   -0.249244226757336307E+01   -0.250770504767925706E+01   -0.230796256727575582E+03
    0.732284939988295491E+02    0.223025720353589134E-01   -0.246876640926409419E+01   -0.243747815487891639E+01   -0.228885302347990773E+03
    0.722321526977796680E+02    0.224698275527785811E-01   -0.241750294966626278E+01   -0.241200216665624723E+01   -0.227707638124411687E+03
    0.722321526977796680E+02    0.224698275527785811E-01   -0.241750294966626278E+01   -0.241200216665624723E+01   -0.227707638124411687E+03
    0.722321526977796680E+02    0.224698275527785811E-01   -0.241750294966626278E+01   -0.241200216665624723E+01   -0.227707638124411687E+03
    0.722321526977796680E+02    0.224698275527785811E-01   -0.241750294966626278E+01   -0.241200216665624723E+01   -0.227707638124411687E+03
    0.707706339241125306E+02    0.239111418062894279E-01   -0.246570909736364019E+01   -0.242180136192832673E+01   -0.229217046346313509E+03
    0.730609010631702915E+02    0.229703215737032673E-01   -0.243799591760183887E+01   -0.248392579484452725E+01   -0.228266759104851019E+03
    0.730609010631702915E+02    0.229703215737032673E-01   -0.243799591760183887E+01   -0.248392579484452725E+01   -0.228266759104851019E+03
    0.731741179147163621E+02    0.207330852808740793E-01   -0.241870830674735071E+01   -0.240298074633698233E+01   -0.228268688155557697E+03
    0.731741179147163621E+02    0.207330852808740793E-01   -0.241870830674735071E+01   -0.240298074633698233E+01   -0.228268688155557697E+03
    0.712706750499892649E+02    0.223121895801978928E-01   -0.243536070516555370E+01   -0.246897770682128881E+01   -0.229065484464419995E+03
    0.745698043682088496E+02    0.224988238587634573E-01   -0.243492807761214580E+01   -0.245957608469641986E+01   -0.227412179131248052E+03
    0.745698043682088496E+02    0.224988238587634573E-01   -0.243492807761214580E+01   -0.245957608469641986E+01   -0.227412179131248052E+03
    0.745698043682088496E+02    0.224988238587634573E-01   -0.243492807761214580E+01   -0.245957608469641986E+01   -0.227412179131248052E+03
    0.745698043682088496E+02    0.224988238587634573E-01   -0.243492807761214580E+01   -0.245957608469641986E+01   -0.227412179131248052E+03
    0.745698043682088496E+02    0.224988238587634573E-01   -0.243492807761214580E+01   -0.245957608469641986E+01   -0.227412179131248052E+03
    0.722168925028880437E+02    0.239062702804947076E-01   -0.247228592566047833E+01   -0.245419154582936283E+01   -0.229072779593629633E+03
    0.741994715940045069E+02    0.203245469446280205E-01   -0.245395218306393792E+01   -0.251372271178499673E+01   -0.229479593834403317E+03
    0.745600547232494222E+02    0.231268316043782320E-01   -0.246744160245195721E+01   -0.242170173014497436E+01   -0.228014105321998613E+03
    0.745600547232494222E+02    0.231268316043782320E-01   -0.246744160245195721E+01   -0.242170173014497436E+01   -0.228014105321998613E+03
    0.708630369482950044E+02    0.235144900120140658E-01   -0.242442736446095708E+01   -0.242154916924555286E+01   -0.228341355324495112E+03
    0.708630369482950044E+02    0.235144900120140658E-01   -0.242442736446095708E+01   -0.242154916924555286E+01   -0.228341355324495112E+03
    0.740181360449018797E+02    0.217531596469084931E-01   -0.249511948768138936E+01   -0.250539426419924105E+01   -0.230073098414893991E+03
    0.728560512049833449E+02    0.241509549156940333E-01   -0.250642750046320062E+01   -0.245610793935910809E+01   -0.229564058748071773E+03
    0.725975915373584257E+02    0.221373312166353968E-01   -0.243864813079771192E+01   -0.242119839216114352E+01   -0.228242930112365286E+03
    0.725975915373584257E+02    0.221373312166353968E-01   -0.243864813079771192E+01   -0.242119839216114352E+01   -0.228242930112365286E+03
    0.720556556702353674E+02    0.227531490360764581E-01   -0.250304702886013164E+01   -0.249498849604983164E+01   -0.230461120342004563E+03
    0.738496636883505175E+02    0.236192839880169717E-01   -0.240560329916028470E+01   -0.246568512638118342E+01   -0.226967601463366748E+03
    0.738496636883505175E+02    0.236192839880169717E-01   -0.240560329916028470E+01   -0.246568512638118342E+01   -0.226967601463366748E+03
    0.738496636883505175E+02    0.236192839880169717E-01   -0.240560329916028470E+01   -0.246568512638118342E+01   -0.226967601463366748E+03
    0.738496636883505175E+02    0.236192839880169717E-01   -0.240560329916028470E+01   -0.246568512638118342E+01   -0.226967601463366748E+03
    0.738496636883505175E+02    0.236192839880169717E-01   -0.240560329916028470E+01   -0.246568512638118342E+01   -0.226967601463366748E+03
    0.738496636883505175E+02    0.236192839880169717E-01   -0.240560329916028470E+01   -0.246568512638118342E+01   -0.226967601463366748E+03
    0.738496636883505175E+02    0.236192839880169717E-01   -0.240560329916028470E+01   -0.246568512638118342E+01   -0.226967601463366748E+03
    0.738496636883505175E+02    0.236192839880169717E-01   -0.240560329916028470E+01   -0.246568512638118342E+01   -0.226967601463366748E+03
    0.741182356007990393E+02    0.245410225464971904E-01   -0.239637428767940719E+01   -0.242086046434080604E+01   -0.227131959028828646E+03
    0.741182356007990393E+02    0.245410225464971904E-01   -0.239637428767940719E+01   -0.242086046434080604E+01   -0.227131959028828646E+03
    0.741182356007990393E+02    0.245410225464971904E-01   -0.239637428767940719E+01   -0.242086046434080604E+01   -0.227131959028828646E+03
    0.741182356007990393E+02    0.245410225464971904E-01   -0.239637428767940719E+01   -0.242086046434080604E+01   -0.227131959028828646E+03
    0.741182356007990393E+02    0.245410225464971904E-01   -0.239637428767940719E+01   -0.242086046434080604E+01   -0.227131959028828646E+03
    0.741182356007990393E+02    0.245410225464971904E-01   -0.239637428767940719E+01   -0.242086046434080604E+01   -0.227131959028828646E+03
    0.741182356007990393E+02    0.245410225464971904E-01   -0.239637428767940719E+01   -0.242086046434080604E+01   -0.227131959028828646E+03
    0.742453257913966240E+02    0.244551432110500025E-01   -0.245859127303223834E+01   -0.246313430696418623E+01   -0.228296179106756171E+03
    0.742453257913966240E+02    0.244551432110500025E-01   -0.245859127303223834E+01   -0.246313430696418623E+01   -0.228296179106756171E+03
    0.744473209484849576E+02    0.242989426537247068E-01   -0.246847046830705841E+01   -0.245436327081469186E+01   -0.228240894400130486E+03
    0.744473209484849576E+02    0.242989426537247068E-01   -0.246847046830705841E+01   -0.245436327081469186E+01   -0.228240894400130486E+03
    0.711366799258200615E+02    0.234548054895889584E-01   -0.250555815333097254E+01   -0.239556887515980765E+01   -0.229894347315256255E+03
    0.740873432191098402E+02    0.216773797566225598E-01   -0.245173346544962989E+01   -0.236988941186066393E+01   -0.228549255319851397E+03
    0.740118269248970648E+02    0.207754572346392739E-01   -0.249446168493283915E+01   -0.234508997245925377E+01   -0.229806253437748751E+03
    0.744242339877944801E+02    0.192229380775502667E-01   -0.256808856258757245E+01   -0.234229067430330540E+01   -0.231434608292156213E+03
    0.724887413164977232E+02    0.222761598086315196E-01   -0.248864152018177087E+01   -0.238415791063860505E+01   -0.229355169854362458E+03
    0.744248599577988728E+02    0.214274144073113189E-01   -0.249862465258839261E+01   -0.233617608940110966E+01   -0.229729742075348128E+03
    0.734118472271038911E+02    0.208169936795706105E-01   -0.249317573289928696E+01   -0.232666305554501562E+01   -0.229972469186099971E+03
    0.737357401744361596E+02    0.233125289158850335E-01   -0.258155715411897768E+01   -0.242239615190127111E+01   -0.231500776326303196E+03
    0.748592850966327603E+02    0.235057400780682400E-01   -0.250375551418402464E+01   -0.242631613007577007E+01   -0.228529942511206400E+03
    0.748592850966327603E+02    0.235057400780682400E-01   -0.250375551418402464E+01   -0.242631613007577007E+01   -0.228529942511206400E+03
    0.732070503605110474E+02    0.237008441056176522E-01   -0.239324547980991476E+01   -0.236353285502118382E+01   -0.227679148343546956E+03
    0.732070503605110474E+02    0.237008441056176522E-01   -0.239324547980991476E+01   -0.236353285502118382E+01   -0.227679148343546956E+03
    0.732070503605110474E+02    0.237008441056176522E-01   -0.239324547980991476E+01   -0.236353285502118382E+01   -0.227679148343546956E+03
    0.732070503605110474E+02    0.237008441056176522E-01   -0.239324547980991476E+01   -0.236353285502118382E+01   -0.227679148343546956E+03
    0.749400817085147537E+02    0.237341564343592493E-01   -0.241082695943290126E+01   -0.236738114621182927E+01   -0.227365707799681758E+03
    0.749400817085147537E+02    0.237341564343592493E-01   -0.241082695943290126E+01   -0.236738114621182927E+01   -0.227365707799681758E+03
    0.749400817085147537E+02    0.237341564343592493E-01   -0.241082695943290126E+01   -0.236738114621182927E+01   -0.227365707799681758E+03
    0.749400817085147537E+02    0.237341564343592493E-01   -0.241082695943290126E+01   -0.236738114621182927E+01   -0.227365707799681758E+03
    0.749400817085147537E+02    0.237341564343592493E-01   -0.241082695943290126E+01   -0.236738114621182927E+01   -0.227365707799681758E+03
    0.749400817085147537E+02    0.237341564343592493E-01   -0.241082695943290126E+01   -0.236738114621182927E+01   -0.227365707799681758E+03
    0.727912500417350543E+02    0.240788049138390726E-01   -0.238112663757889154E+01   -0.234453651881925174E+01   -0.228692816045435762E+03
    0.737506295328918213E+02    0.233004310773714564E-01   -0.234508377241967558E+01   -0.235719372894974333E+01   -0.228096534558568493E+03
    0.737506295328918213E+02    0.233004310773714564E-01   -0.234508377241967558E+01   -0.235719372894974333E+01   -0.228096534558568493E+03
    0.734819525993978289E+02    0.239828346387335432E-01   -0.241765431163795297E+01   -0.232147156779037855E+01   -0.229416899821107052E+03
    0.731990347261007770E+02    0.235678835763954986E-01   -0.233760201070171192E+01   -0.235406719078667992E+01   -0.228443140614119642E+03
    0.731990347261007770E+02    0.235678835763954986E-01   -0.233760201070171192E+01   -0.235406719078667992E+01   -0.228443140614119642E+03
    0.749731034237384364E+02    0.255040579471951454E-01   -0.240840412191655195E+01   -0.238648089007184838E+01   -0.228055141126709543E+03
    0.749731034237384364E+02    0.255040579471951454E-01   -0.240840412191655195E+01   -0.238648089007184838E+01   -0.228055141126709543E+03
    0.749731034237384364E+02    0.255040579471951454E-01   -0.240840412191655195E+01   -0.238648089007184838E+01   -0.228055141126709543E+03
    0.725560264552511853E+02    0.246212546319037190E-01   -0.241036636524489900E+01   -0.234943322593949677E+01   -0.228505136817298222E+03
    0.742970705833456861E+02    0.253516693347788889E-01   -0.240864832896745273E+01   -0.233789494424706845E+01   -0.228809198949291925E+03
    0.748473003053768338E+02    0.238662935090724129E-01   -0.240699596398778937E+01   -0.239681358226164321E+01   -0.226974463726853770E+03
    0.748473003053768338E+02    0.238662935090724129E-01   -0.240699596398778937E+01   -0.239681358226164321E+01   -0.226974463726853770E+03
    0.748473003053768338E+02    0.238662935090724129E-01   -0.240699596398778937E+01   -0.239681358226164321E+01   -0.226974463726853770E+03
    0.748473003053768338E+02    0.238662935090724129E-01   -0.240699596398778937E+01   -0.239681358226164321E+01   -0.226974463726853770E+03
    0.748473003053768338E+02    0.238662935090724129E-01   -0.240699596398778937E+01   -0.239681358226164321E+01   -0.226974463726853770E+03
    0.748473003053768338E+02    0.238662935090724129E-01   -0.240699596398778937E+01   -0.239681358226164321E+01   -0.226974463726853770E+03
    0.748473003053768338E+02    0.238662935090724129E-01   -0.240699596398778937E+01   -0.239681358226164321E+01   -0.226974463726853770E+03
    0.739069103235110276E+02    0.241431933055765123E-01   -0.243519011171849931E+01   -0.238204101311623129E+01   -0.227619982338045816E+03
    0.739069103235110276E+02    0.241431933055765123E-01   -0.243519011171849931E+01   -0.238204101311623129E+01   -0.227619982338045816E+03
    0.739069103235110276E+02    0.241431933055765123E-01   -0.243519011171849931E+01   -0.238204101311623129E+01   -0.227619982338045816E+03
    0.739069103235110276E+02    0.241431933055765123E-01   -0.243519011171849931E+01   -0.238204101311623129E+01   -0.227619982338045816E+03
    0.734010368021214106E+02    0.233541695464761848E-01   -0.244593156697339476E+01   -0.236523949203068717E+01   -0.228193283965127392E+03
    0.734010368021214106E+02    0.233541695464761848E-01   -0.244593156697339476E+01   -0.236523949203068717E+01   -0.228193283965127392E+03
    0.734010368021214106E+02    0.233541695464761848E-01   -0.244593156697339476E+01   -0.236523949203068717E+01   -0.228193283965127392E+03
    0.726981651181639563E+02    0.225241583926567117E-01   -0.242672123569118048E+01   -0.235082621257769731E+01   -0.228569534868511681E+03
    0.726981651181639563E+02    0.225241583926567117E-01   -0.242672123569118048E+01   -0.235082621257769731E+01   -0.228569534868511681E+03
    0.731025654271594192E+02    0.236263509564088175E-01   -0.241996557281983327E+01   -0.239890493189037457E+01   -0.227562384367486317E+03
    0.731025654271594192E+02    0.236263509564088175E-01   -0.241996557281983327E+01   -0.239890493189037457E+01   -0.227562384367486317E+03
    0.731025654271594192E+02    0.236263509564088175E-01   -0.241996557281983327E+01   -0.239890493189037457E+01   -0.227562384367486317E+03
    0.731025654271594192E+02    0.236263509564088175E-01   -0.241996557281983327E+01   -0.239890493189037457E+01   -0.227562384367486317E+03
    0.740109218748455646E+02    0.245219703865322720E-01   -0.240285373538266178E+01   -0.241975452058562190E+01   -0.227264597102434863E+03
    0.740109218748455646E+02    0.245219703865322720E-01   -0.240285373538266178E+01   -0.241975452058562190E+01   -0.227264597102434863E+03
    0.740109218748455646E+02    0.245219703865322720E-01   -0.240285373538266178E+01   -0.241975452058562190E+01   -0.227264597102434863E+03
    0.740109218748455646E+02    0.245219703865322720E-01   -0.240285373538266178E+01   -0.241975452058562190E+01   -0.227264597102434863E+03
    0.740109218748455646E+02    0.245219703865322720E-01   -0.240285373538266178E+01   -0.241975452058562190E+01   -0.227264597102434863E+03
    0.740109218748455646E+02    0.245219703865322720E-01   -0.240285373538266178E+01   -0.241975452058562190E+01   -0.227264597102434863E+03
    0.736720937092789825E+02    0.234283462912808459E-01   -0.235229137606676719E+01   -0.234685979489170915E+01   -0.228486763810772942E+03
    0.736720937092789825E+02    0.234283462912808459E-01   -0.235229137606676719E+01   -0.234685979489170915E+01   -0.228486763810772942E+03
    0.728458460883425687E+02    0.228120077932520392E-01   -0.256182705240435116E+01   -0.234548338707417559E+01   -0.230951896475948502E+03
    0.740130540069831113E+02    0.251754291979830250E-01   -0.258055242030913812E+01   -0.227493055900287811E+01   -0.232690529370854875E+03
    0.747129086027509572E+02    0.216724332572147925E-01   -0.260320158338830154E+01   -0.240704963839634356E+01   -0.231344362368753650E+03
    0.726769848797316342E+02    0.235726366893629531E-01   -0.252780528207346800E+01   -0.232549421270396017E+01   -0.230743837247394339E+03
    0.725286120284798557E+02    0.260069315090632400E-01   -0.245728269270647237E+01   -0.235437296284555542E+01   -0.229270301170645865E+03
    0.739805699530227514E+02    0.260788453103990708E-01   -0.244069880753428103E+01   -0.233991751196752640E+01   -0.229213904761822306E+03
    0.730500280123670933E+02    0.257125977126217153E-01   -0.243252983681385793E+01   -0.235688928052984670E+01   -0.228715667943041979E+03
    0.721233208391119547E+02    0.242509992933724154E-01   -0.242659112275511379E+01   -0.232301718462851881E+01   -0.229632731531657384E+03
    0.719551258319574458E+02    0.252087940162644512E-01   -0.247205439578862185E+01   -0.234224276880711546E+01   -0.229809088015355258E+03
    0.707835013797644166E+02    0.249193127354441143E-01   -0.246430957772347003E+01   -0.234511941648196798E+01   -0.229856117729697758E+03
    0.738841605928780041E+02    0.250912587697846093E-01   -0.246617614794201323E+01   -0.237285540834884401E+01   -0.228464659683062138E+03
    0.738841605928780041E+02    0.250912587697846093E-01   -0.246617614794201323E+01   -0.237285540834884401E+01   -0.228464659683062138E+03
    0.728270699732062496E+02    0.252177161249280794E-01   -0.241026975190824411E+01   -0.228083982127621443E+01   -0.230967958228574133E+03
    0.718290585866641038E+02    0.245936084687689051E-01   -0.247041997985237805E+01   -0.234351316109313412E+01   -0.229697875849526582E+03
    0.715521504885310833E+02    0.240716249626667413E-01   -0.243351020207085300E+01   -0.237939709933750354E+01   -0.228234160971353276E+03
    0.715521504885310833E+02    0.240716249626667413E-01   -0.243351020207085300E+01   -0.237939709933750354E+01   -0.228234160971353276E+03
    0.715521504885310833E+02    0.240716249626667413E-01   -0.243351020207085300E+01   -0.237939709933750354E+01   -0.228234160971353276E+03
    0.711352169915643060E+02    0.242784278555507639E-01   -0.244417957726614077E+01   -0.236655136324340587E+01   -0.228798922885730832E+03
    0.730969951663074937E+02    0.248359861786077961E-01   -0.244630286357953208E+01   -0.243258779541599512E+01   -0.228322111864466763E+03
    0.730969951663074937E+02    0.248359861786077961E-01   -0.244630286357953208E+01   -0.243258779541599512E+01   -0.228322111864466763E+03
    0.740254855776584009E+02    0.250984148300443660E-01   -0.249087578597684889E+01   -0.245370890556667387E+01   -0.229164818837841779E+03
    0.699654820634646910E+02    0.242639584736245549E-01   -0.250211184247464935E+01   -0.236310254342594472E+01   -0.230874858455913596E+03
    0.731914813295613271E+02    0.255441180298455750E-01   -0.242322369111861224E+01   -0.233204381356157953E+01   -0.229289092390830461E+03
    0.726592813918957461E+02    0.252953212749731197E-01   -0.246186249392276313E+01   -0.241490281039578125E+01   -0.228892205946060187E+03
    0.726592813918957461E+02    0.252953212749731197E-01   -0.246186249392276313E+01   -0.241490281039578125E+01   -0.228892205946060187E+03
    0.711023617528468606E+02    0.249623807414259304E-01   -0.248640348796280053E+01   -0.241243677095908993E+01   -0.229731452347891803E+03
    0.708576248703712110E+02    0.243726691280151224E-01   -0.234593171603777684E+01   -0.232888274277070462E+01   -0.230118565911611881E+03
    0.724071783831912512E+02    0.268297962567033144E-01   -0.239160581750394030E+01   -0.235345071379426196E+01   -0.229626814920913347E+03
    0.709803043498102681E+02    0.253139920202135882E-01   -0.238797480026353526E+01   -0.235656273626212176E+01   -0.228851607205765987E+03
    0.717168691938423137E+02    0.251278974275239188E-01   -0.231284209075032487E+01   -0.236381978188425323E+01   -0.229247816293181842E+03
    0.721199512173272979E+02    0.259886497969831695E-01   -0.233298144274972818E+01   -0.242239564925126150E+01   -0.228340908067452432E+03
    0.721199512173272979E+02    0.259886497969831695E-01   -0.233298144274972818E+01   -0.242239564925126150E+01   -0.228340908067452432E+03
    0.729541020026173896E+02    0.253111941920905505E-01   -0.234709124431733240E+01   -0.240522097236495291E+01   -0.227771099030840332E+03
    0.729541020026173896E+02    0.253111941920905505E-01   -0.234709124431733240E+01   -0.240522097236495291E+01   -0.227771099030840332E+03
    0.729541020026173896E+02    0.253111941920905505E-01   -0.234709124431733240E+01   -0.240522097236495291E+01   -0.227771099030840332E+03
    0.735790596197264932E+02    0.258411758228242021E-01   -0.235627521842820631E+01   -0.240722959168699724E+01   -0.228064404133197172E+03
    0.735790596197264932E+02    0.258411758228242021E-01   -0.235627521842820631E+01   -0.240722959168699724E+01   -0.228064404133197172E+03
    0.735790596197264932E+02    0.258411758228242021E-01   -0.235627521842820631E+01   -0.240722959168699724E+01   -0.228064404133197172E+03
    0.681046762581950986E+02    0.265423087688506643E-01   -0.238346673998961878E+01   -0.238647426366106963E+01   -0.229564962993044816E+03
    0.749558291619205477E+02    0.262132043954693486E-01   -0.239019091786958393E+01   -0.243446556471818498E+01   -0.228304288967507404E+03
    0.749558291619205477E+02    0.262132043954693486E-01   -0.239019091786958393E+01   -0.243446556471818498E+01   -0.228304288967507404E+03
    0.694444236100384273E+02    0.244242102282123015E-01   -0.240289179361926841E+01   -0.244759571638340656E+01   -0.228947693831589248E+03
    0.696722373827604713E+02    0.260718664071316018E-01   -0.238955518499793618E+01   -0.246867482614805800E+01   -0.230182944971818870E+03
    0.693637049889516391E+02    0.268038676449007668E-01   -0.235311309156779958E+01   -0.244550711298544066E+01   -0.229651062623954942E+03
    0.711231926855408858E+02    0.258112169631870524E-01   -0.235990257884623578E+01   -0.242984009131730616E+01   -0.228160524650210846E+03
    0.711231926855408858E+02    0.258112169631870524E-01   -0.235990257884623578E+01   -0.242984009131730616E+01   -0.228160524650210846E+03
    0.698098467625416106E+02    0.255275469593893682E-01   -0.241508659977130202E+01   -0.245186791840832896E+01   -0.229486422369107743E+03
    0.697538473510584112E+02    0.262721315137425665E-01   -0.238940284193973351E+01   -0.244378523290934790E+01   -0.229314920507598885E+03
    0.721510810214746385E+02    0.271249376870801653E-01   -0.238417500201102950E+01   -0.241633571666318403E+01   -0.229347955045931087E+03
    0.724985847031777837E+02    0.252488813166763838E-01   -0.240178442797275693E+01   -0.241816061335899057E+01   -0.227982554244661344E+03
    0.724985847031777837E+02    0.252488813166763838E-01   -0.240178442797275693E+01   -0.241816061335899057E+01   -0.227982554244661344E+03
    0.700029126227830858E+02    0.265929643820130290E-01   -0.235509544084526823E+01   -0.238261116456239241E+01   -0.229403428616375578E+03
    0.694826162343282476E+02    0.245816154030511179E-01   -0.236482758770873769E+01   -0.235312817190154799E+01   -0.229328413724251760E+03
    0.706513407253475805E+02    0.277218841023888635E-01   -0.243678526654801075E+01   -0.230757281541951453E+01   -0.232032909885542409E+03
    0.702920684686307311E+02    0.256117976221072255E-01   -0.238527132568055933E+01   -0.234444604664658884E+01   -0.229525742568939364E+03
    0.708499188450127519E+02    0.245251431755022717E-01   -0.231962091662122116E+01   -0.232102196199521948E+01   -0.231035959932085603E+03
    0.704318557361302311E+02    0.260046206736525252E-01   -0.232097687627101257E+01   -0.240676211324359812E+01   -0.228774233918582269E+03
    0.677475285171786652E+02    0.257870599859523972E-01   -0.235940679967711286E+01   -0.241161964436477039E+01   -0.229075404279645113E+03
    0.730956577127836056E+02    0.260302397734570520E-01   -0.234021343664030290E+01   -0.238590703321463504E+01   -0.228847748853247253E+03
    0.701298936568707632E+02    0.266097221904876106E-01   -0.243879515337196340E+01   -0.234791991584932624E+01   -0.230524783301807418E+03
    0.675400577353885438E+02    0.257716317469813341E-01   -0.235058169070669631E+01   -0.242089178169972019E+01   -0.229130887385688197E+03
    0.722412686970501454E+02    0.273251914728667965E-01   -0.244832258478203313E+01   -0.242551342402806114E+01   -0.230496448296323166E+03
    0.681442547830899912E+02    0.250969892243396372E-01   -0.234342157600980006E+01   -0.240142821747590052E+01   -0.228674257189816927E+03
    0.745301282097395017E+02    0.274517156272599330E-01   -0.234955351024950820E+01   -0.236797451600483333E+01   -0.230652619551028948E+03
    0.682870349590354806E+02    0.256799753805271522E-01   -0.239136082691259233E+01   -0.238443391001626503E+01   -0.228977827829186197E+03
    0.734911273501699895E+02    0.261237904801363136E-01   -0.242545409665163891E+01   -0.239478358101757838E+01   -0.228641115616902567E+03
    0.734911273501699895E+02    0.261237904801363136E-01   -0.242545409665163891E+01   -0.239478358101757838E+01   -0.228641115616902567E+03
    0.726886730597699966E+02    0.263241762354713971E-01   -0.248082720837076298E+01   -0.243967254521156462E+01   -0.230095007130695507E+03
    0.705411570858420021E+02    0.269169173114544961E-01   -0.236642698405639385E+01   -0.244490985061179833E+01   -0.229674856403374804E+03
    0.685334710159509370E+02    0.248455698287416010E-01   -0.239857472541259042E+01   -0.241139070365797625E+01   -0.228812173719602811E+03
    0.740350664532632834E+02    0.267389547874248047E-01   -0.239058611817755073E+01   -0.244528633562308784E+01   -0.229434605255208737E+03
    0.730183221332706580E+02    0.254134935242974133E-01   -0.241189809649696363E+01   -0.240183385856272213E+01   -0.228118161184765370E+03
    0.730183221332706580E+02    0.254134935242974133E-01   -0.241189809649696363E+01   -0.240183385856272213E+01   -0.228118161184765370E+03
    0.700655909908738295E+02    0.283328136626078975E-01   -0.243446632465813417E+01   -0.238016318758992540E+01   -0.232252026546361265E+03
    0.714839647534430327E+02    0.268628598736989077E-01   -0.238768448162435032E+01   -0.243325008801319065E+01   -0.229086736785469611E+03
    0.712897857696275992E+02    0.243667467810099597E-01   -0.238818342693488717E+01   -0.236296309296151108E+01   -0.228288283270313656E+03
    0.712897857696275992E+02    0.243667467810099597E-01   -0.238818342693488717E+01   -0.236296309296151108E+01   -0.228288283270313656E+03
    0.727137870826202430E+02    0.245686739546507639E-01   -0.235598763892823104E+01   -0.235139792532209491E+01   -0.228709812964054663E+03
    0.673855884977118080E+02    0.276779539783670279E-01   -0.233221267494979534E+01   -0.234041690890036369E+01   -0.232237163543649530E+03
    0.745385155622664684E+02    0.260795274307616017E-01   -0.241972763704415161E+01   -0.238642191156391936E+01   -0.228602013358769199E+03
    0.745385155622664684E+02    0.260795274307616017E-01   -0.241972763704415161E+01   -0.238642191156391936E+01   -0.228602013358769199E+03
    0.745420454696584045E+02    0.264974659336449855E-01   -0.247677600151655009E+01   -0.243816965105700234E+01   -0.229688795002780495E+03
    0.729822913648305871E+02    0.269213910228692822E-01   -0.247005164449848902E+01   -0.236447098128060418E+01   -0.230102613292009750E+03
    0.678561469735095670E+02    0.252744067390317795E-01   -0.242558983017347440E+01   -0.238545214898002111E+01   -0.229697749691854796E+03
    0.668344971332846853E+02    0.263611999630120504E-01   -0.238526344512091537E+01   -0.246101152822872393E+01   -0.230809675653663447E+03
    0.740223507737430282E+02    0.273207329934774465E-01   -0.245378461391459801E+01   -0.232177436862715325E+01   -0.230590540558401415E+03
    0.748832391735984544E+02    0.276843122236679166E-01   -0.241070382767880975E+01   -0.226899379999370243E+01   -0.231725336154550433E+03
    0.723261338259026161E+02    0.267816822225803684E-01   -0.228488022758197262E+01   -0.237081354957093371E+01   -0.230736392068787040E+03
    0.693117356246901579E+02    0.278731062503141426E-01   -0.236726784873406837E+01   -0.237873884803210078E+01   -0.231017421335813964E+03
    0.710057301759446915E+02    0.254384292110068910E-01   -0.232556533847250346E+01   -0.235523578617843654E+01   -0.229586506773345349E+03
    0.666436372925870870E+02    0.281743144711706812E-01   -0.236545455258953918E+01   -0.243861901420264271E+01   -0.231872335627230001E+03
    0.726758121848532710E+02    0.261367055347243443E-01   -0.240216954420951367E+01   -0.239450861109488944E+01   -0.228747214835647696E+03
    0.726758121848532710E+02    0.261367055347243443E-01   -0.240216954420951367E+01   -0.239450861109488944E+01   -0.228747214835647696E+03
    0.693190858477142058E+02    0.247320057946971671E-01   -0.242952124285639393E+01   -0.238830209471050914E+01   -0.228905870312835162E+03
    0.697293924893268411E+02    0.271477141805519066E-01   -0.237675562070412560E+01   -0.232115345890621594E+01   -0.231289540117930642E+03
    0.738249450741766537E+02    0.252552572004611474E-01   -0.233750450094401341E+01   -0.234198154695840044E+01   -0.229485894411235222E+03
    0.687348488592404152E+02    0.249812531381277125E-01   -0.236597899047392435E+01   -0.243074383582634157E+01   -0.228555018689060859E+03
    0.687348488592404152E+02    0.249812531381277125E-01   -0.236597899047392435E+01   -0.243074383582634157E+01   -0.228555018689060859E+03
    0.698667395783061096E+02    0.261500194382605702E-01   -0.238097619834266716E+01   -0.237432943646679862E+01   -0.228912728464521479E+03
    0.698667395783061096E+02    0.261500194382605702E-01   -0.238097619834266716E+01   -0.237432943646679862E+01   -0.228912728464521479E+03
    0.692794600900078876E+02    0.244405680132123299E-01   -0.237849627141027131E+01   -0.223893016613073126E+01   -0.233035928534072781E+03
    0.740672170291188507E+02    0.257005137417803640E-01   -0.246338069368250556E+01   -0.230847788678988941E+01   -0.229614732537278115E+03
    0.744281703654785076E+02    0.277796276232886476E-01   -0.247392331824493228E+01   -0.228545093386634246E+01   -0.231263534429721119E+03
    0.745514030230450828E+02    0.268282451228285812E-01   -0.242214310631948848E+01   -0.226016181124811499E+01   -0.231060406707760109E+03
    0.741484312812607413E+02    0.263078479781640555E-01   -0.246134596747697776E+01   -0.229532381072784730E+01   -0.229953441087897971E+03
    0.729818163645795437E+02    0.269747190964719011E-01   -0.251906402743620683E+01   -0.225188422395968635E+01   -0.232367106107712345E+03
    0.649513166311694050E+02    0.269609534740888335E-01   -0.232060365247641087E+01   -0.242952120695983309E+01   -0.230950975627427795E+03
    0.701573888766788798E+02    0.259997791843184535E-01   -0.230363291859704900E+01   -0.241585813165641428E+01   -0.228973395282292870E+03
    0.731297437888592299E+02    0.252695444843538432E-01   -0.252716958238957856E+01   -0.235605675020586869E+01   -0.230271032667200501E+03
    0.708679493881000582E+02    0.244474250979691450E-01   -0.231082750760470379E+01   -0.238437972254536623E+01   -0.228477340990543922E+03
    0.708679493881000582E+02    0.244474250979691450E-01   -0.231082750760470379E+01   -0.238437972254536623E+01   -0.228477340990543922E+03
    0.747251153819407818E+02    0.260892531650779198E-01   -0.250946261934179615E+01   -0.230677358338545702E+01   -0.229902472502590683E+03
    0.662731582520995204E+02    0.250598978349715652E-01   -0.244495470969365636E+01   -0.234641001495043522E+01   -0.231538411278203142E+03
    0.713691558567389990E+02    0.275973464601302343E-01   -0.238420894174051545E+01   -0.235826133033173146E+01   -0.230608858114918263E+03
    0.714527819172262042E+02    0.248067373427609608E-01   -0.232136025673296320E+01   -0.238369978168822172E+01   -0.228289647563343578E+03
    0.714527819172262042E+02    0.248067373427609608E-01   -0.232136025673296320E+01   -0.238369978168822172E+01   -0.228289647563343578E+03
    0.721431970063290748E+02    0.254599931739905513E-01   -0.238847273914857672E+01   -0.234012509689968118E+01   -0.229235636381285047E+03
    0.749191476758253003E+02    0.243576145331424188E-01   -0.249051758884071273E+01   -0.234570461677077535E+01   -0.228893568645674037E+03
    0.699129910741533536E+02    0.253601447114240874E-01   -0.243540658498323692E+01   -0.241797833986341804E+01   -0.229460961957025717E+03
    0.698161056225377479E+02    0.241184027911460520E-01   -0.245149780115157467E+01   -0.237368751047744908E+01   -0.229273067359926301E+03
    0.739348414614012057E+02    0.253666396603341136E-01   -0.247675409249453349E+01   -0.237959748804473792E+01   -0.228812160998794155E+03
    0.739348414614012057E+02    0.253666396603341136E-01   -0.247675409249453349E+01   -0.237959748804473792E+01   -0.228812160998794155E+03
    0.744552133667384055E+02    0.252992692901115000E-01   -0.231258135220697669E+01   -0.244461301412429011E+01   -0.228667020802974207E+03
    0.744552133667384055E+02    0.252992692901115000E-01   -0.231258135220697669E+01   -0.244461301412429011E+01   -0.228667020802974207E+03
    0.640195258175498054E+02    0.257484483859909651E-01   -0.239767481517763859E+01   -0.236481332999836980E+01   -0.231293183440047471E+03
    0.709002767226008928E+02    0.249355344557478618E-01   -0.226899003361855245E+01   -0.244353083172817653E+01   -0.228926982058276735E+03
    0.735141087619387008E+02    0.247895929068895002E-01   -0.229751684010781698E+01   -0.240488474889563886E+01   -0.228046170055121451E+03
    0.735141087619387008E+02    0.247895929068895002E-01   -0.229751684010781698E+01   -0.240488474889563886E+01   -0.228046170055121451E+03
    0.746455943601365419E+02    0.234960157929598838E-01   -0.238117018842601880E+01   -0.229308631684706565E+01   -0.230978545882648518E+03
    0.706454715161054310E+02    0.227470785768287588E-01   -0.244874595762518465E+01   -0.231940140250369708E+01   -0.229759477755042013E+03
    0.740056618831480364E+02    0.193856247697738356E-01   -0.238225996751006175E+01   -0.228222932800575240E+01   -0.231369355073458706E+03
    0.711771113006014957E+02    0.214017618986480015E-01   -0.247015885459785967E+01   -0.230053171565178260E+01   -0.230631554114279652E+03
    0.717483767646332069E+02    0.206491693212029689E-01   -0.240514040928357886E+01   -0.227958420156199404E+01   -0.231106424525085117E+03
    0.735364678647377588E+02    0.174033023385644671E-01   -0.237885816269795258E+01   -0.225564261144439637E+01   -0.233191558790905958E+03
    0.653308779586054413E+02    0.208704805850422406E-01   -0.241683823009982746E+01   -0.229666839299026382E+01   -0.231979490191225636E+03
    0.736591450871871700E+02    0.217552329199589001E-01   -0.241064819638161865E+01   -0.218800100263799102E+01   -0.232235487673898859E+03
    0.732793610009082386E+02    0.221128052130850072E-01   -0.244272707397482547E+01   -0.226863675702245171E+01   -0.230139815226380790E+03
    0.695296200065986483E+02    0.231181221730175149E-01   -0.238387502006207397E+01   -0.234863179128702715E+01   -0.229246673744141930E+03
    0.689853488336511589E+02    0.233728715751257941E-01   -0.240121982957829516E+01   -0.227943574023682594E+01   -0.231357895667571086E+03
    0.744759926296207908E+02    0.234972855304093203E-01   -0.243511236140699117E+01   -0.224701317603160433E+01   -0.230530814869913456E+03
    0.741793551299843159E+02    0.217848462285157064E-01   -0.235839773891595250E+01   -0.234465797921915531E+01   -0.228591700528006442E+03
    0.740741283044291094E+02    0.199996293466269577E-01   -0.238793688334798659E+01   -0.221895394164574222E+01   -0.232394161944119446E+03
    0.732623219172615308E+02    0.220363007405618358E-01   -0.243228636526274222E+01   -0.228768682908060228E+01   -0.230033682692433189E+03
    0.710739723063838369E+02    0.237376882484724092E-01   -0.241236165249188872E+01   -0.226690843562273869E+01   -0.231040070358284140E+03
    0.741976833836047547E+02    0.216707049918444528E-01   -0.246513332803754848E+01   -0.231527123907892030E+01   -0.229460095609800646E+03
    0.749596694163007271E+02    0.220504541648496796E-01   -0.243500409845515842E+01   -0.228102536596274152E+01   -0.229816842169775327E+03
    0.734896867877070861E+02    0.212977471635178266E-01   -0.241113555373424582E+01   -0.233468210417790845E+01   -0.228834148515979621E+03
    0.734896867877070861E+02    0.212977471635178266E-01   -0.241113555373424582E+01   -0.233468210417790845E+01   -0.228834148515979621E+03
    0.745213438075941070E+02    0.209212353849585718E-01   -0.239980062242097869E+01   -0.226907556680145639E+01   -0.230733593141209667E+03
    0.748932422828890196E+02    0.222424064061401937E-01   -0.244555135950370239E+01   -0.226784592331239487E+01   -0.229872765995409196E+03
    0.722469601828998549E+02    0.211807933207969583E-01   -0.240580243925370230E+01   -0.236139586320763950E+01   -0.228758703500253176E+03
    0.668451508727989108E+02    0.220373230005441872E-01   -0.228591876900517965E+01   -0.246972739286525966E+01   -0.231078649212291083E+03
    0.692467130515688325E+02    0.209567566175789498E-01   -0.221759800222194503E+01   -0.250530110819375906E+01   -0.232410858794405158E+03
    0.664030077721413647E+02    0.217943707862840313E-01   -0.235507607183804790E+01   -0.238800160532721817E+01   -0.229849281708931869E+03
    0.685349560093338255E+02    0.237237920053167510E-01   -0.239324758657023784E+01   -0.234028007395804227E+01   -0.229677676549889185E+03
    0.680209396794540879E+02    0.220269037429381698E-01   -0.233326848258117092E+01   -0.242240668636853673E+01   -0.229057971951614093E+03
    0.696306083963970082E+02    0.212095964610767296E-01   -0.231185381468439699E+01   -0.238400821431822330E+01   -0.229737009471869015E+03
    0.700681906998494242E+02    0.216785246778586974E-01   -0.228447409338042062E+01   -0.239306059249292691E+01   -0.230132926115909157E+03
    0.649778713715398339E+02    0.216065262738755169E-01   -0.230413539978821724E+01   -0.239231544527249218E+01   -0.230870396675677114E+03
    0.665459945243117659E+02    0.224324507908553253E-01   -0.234501823699198297E+01   -0.231524259371250274E+01   -0.231583858853266321E+03
    0.664554123455809531E+02    0.238998149486895073E-01   -0.238281629594966038E+01   -0.239529245788923451E+01   -0.229745260557468100E+03
    0.681379252053559554E+02    0.233928257438033894E-01   -0.233426263107060183E+01   -0.244322370565272617E+01   -0.228719714679800063E+03
    0.684074244958070210E+02    0.217967059485455333E-01   -0.239596927121375058E+01   -0.246338312699412310E+01   -0.229909619822991147E+03
    0.669136475797059518E+02    0.225636152608331246E-01   -0.239095649589956283E+01   -0.249056227181760814E+01   -0.230659494687188214E+03
    0.649458126366501745E+02    0.202866529186367731E-01   -0.232453922097201726E+01   -0.247437254134828821E+01   -0.232858877978079107E+03
    0.673925592378538170E+02    0.232326153580308774E-01   -0.243533240510703752E+01   -0.248408791637548187E+01   -0.231266478982334235E+03
    0.674670510954778422E+02    0.241864284474222445E-01   -0.240103624324741372E+01   -0.239819559286810025E+01   -0.229175206694663984E+03
    0.667782722616736351E+02    0.247890726371447663E-01   -0.230828100757622057E+01   -0.241470367540800090E+01   -0.229242510532270643E+03
    0.672312950382812460E+02    0.240436818085608579E-01   -0.228594248612292184E+01   -0.237308116640324140E+01   -0.230476639203652610E+03
    0.657566151602386668E+02    0.243480570350750533E-01   -0.230522418516003125E+01   -0.237929679970093044E+01   -0.230584674837302344E+03
    0.673573483529807078E+02    0.253332942073680560E-01   -0.231205141461217423E+01   -0.237986545520411941E+01   -0.229842851435812236E+03
    0.670791648479569886E+02    0.256366469781876549E-01   -0.223875846829317560E+01   -0.243854496098945583E+01   -0.231053111034769756E+03
    0.658441321838408982E+02    0.268188605168426242E-01   -0.227016142760900985E+01   -0.246997250105357935E+01   -0.233047532684095728E+03
    0.653575759345944505E+02    0.252559562966992238E-01   -0.229667691002400076E+01   -0.242480333313920227E+01   -0.230158944068859626E+03
    0.679594837620587953E+02    0.237147880285851556E-01   -0.230591159437915305E+01   -0.248684962796364939E+01   -0.230695327978804045E+03
    0.671320760866265118E+02    0.250334009530802058E-01   -0.234842814553280821E+01   -0.247875325215226683E+01   -0.230644313122711679E+03
    0.673763602258157164E+02    0.233326081930435789E-01   -0.237336558856726176E+01   -0.226846302326783089E+01   -0.232649260524152226E+03
    0.659678337303811304E+02    0.257841722689662808E-01   -0.238472375534626790E+01   -0.239921940645898779E+01   -0.229773924007280925E+03
    0.650210094853447060E+02    0.259621234187806180E-01   -0.243185875003584506E+01   -0.238367364361857303E+01   -0.231615199356935108E+03
    0.633105204427022130E+02    0.247642163616158296E-01   -0.231323880065327536E+01   -0.238031799629927665E+01   -0.231739697406762872E+03
    0.621199207455313669E+02    0.263561432920234769E-01   -0.238507878438971099E+01   -0.235952815191014409E+01   -0.232285375619163545E+03
    0.635091348780374290E+02    0.262047523537648104E-01   -0.228992993008669377E+01   -0.238124763342338408E+01   -0.231781706294829604E+03
    0.622850976059398462E+02    0.259486249675377340E-01   -0.236381270846499270E+01   -0.241111266445959238E+01   -0.231764171992493317E+03
    0.662200528611506058E+02    0.265396529755407874E-01   -0.235449843709846540E+01   -0.237993811410908851E+01   -0.230254700939646597E+03
    0.665454286824356984E+02    0.262665218331224262E-01   -0.237069096649939537E+01   -0.238180565767828689E+01   -0.229860315456226516E+03
    0.667096211235830765E+02    0.260671322836225974E-01   -0.235733691592923433E+01   -0.238852686613151555E+01   -0.229649659929094867E+03
    0.623931787252047485E+02    0.211092957082861139E-01   -0.230275906197498736E+01   -0.234319599968539283E+01   -0.232787581161091595E+03
    0.722866154953288174E+02    0.238893776146518293E-01   -0.235554474868696229E+01   -0.240080094199772631E+01   -0.227206681492829972E+03
    0.722866154953288174E+02    0.238893776146518293E-01   -0.235554474868696229E+01   -0.240080094199772631E+01   -0.227206681492829972E+03
    0.722866154953288174E+02    0.238893776146518293E-01   -0.235554474868696229E+01   -0.240080094199772631E+01   -0.227206681492829972E+03
    0.722866154953288174E+02    0.238893776146518293E-01   -0.235554474868696229E+01   -0.240080094199772631E+01   -0.227206681492829972E+03
    0.722866154953288174E+02    0.238893776146518293E-01   -0.235554474868696229E+01   -0.240080094199772631E+01   -0.227206681492829972E+03
    0.722866154953288174E+02    0.238893776146518293E-01   -0.235554474868696229E+01   -0.240080094199772631E+01   -0.227206681492829972E+03
    0.748948812662971477E+02    0.245445348129859665E-01   -0.228181476528262683E+01   -0.242239033707657558E+01   -0.228108816594290090E+03
    0.748948812662971477E+02    0.245445348129859665E-01   -0.228181476528262683E+01   -0.242239033707657558E+01   -0.228108816594290090E+03
    0.748948812662971477E+02    0.245445348129859665E-01   -0.228181476528262683E+01   -0.242239033707657558E+01   -0.228108816594290090E+03
    0.739365674371403259E+02    0.253316163982047933E-01   -0.227738954414549521E+01   -0.243154143940945078E+01   -0.229266470462031265E+03
    0.743993113869760805E+02    0.241167464483555000E-01   -0.228080898174363833E+01   -0.236303231620826271E+01   -0.229275248962637477E+03
    0.740063171486997931E+02    0.259970746872016309E-01   -0.228426383796190313E+01   -0.239306982426289849E+01   -0.229669200688008686E+03
    0.726178919057525860E+02    0.260275024220318132E-01   -0.231918725592592834E+01   -0.244246326812833381E+01   -0.229229721213775008E+03
    0.747414517494245700E+02    0.259865923889824602E-01   -0.226290913983772324E+01   -0.235551751030264134E+01   -0.231053379308576694E+03
    0.685078281773752309E+02    0.251812816914099916E-01   -0.226927697675299900E+01   -0.239883185148211142E+01   -0.229682840397879971E+03
    0.680431332701434712E+02    0.240045721438492642E-01   -0.239185992087553467E+01   -0.246079035551365433E+01   -0.229466436223601335E+03
    0.749435555814049223E+02    0.255049787080323803E-01   -0.235507418851931138E+01   -0.242553873402377995E+01   -0.227443611585539088E+03
    0.749435555814049223E+02    0.255049787080323803E-01   -0.235507418851931138E+01   -0.242553873402377995E+01   -0.227443611585539088E+03
    0.749435555814049223E+02    0.255049787080323803E-01   -0.235507418851931138E+01   -0.242553873402377995E+01   -0.227443611585539088E+03
    0.749435555814049223E+02    0.255049787080323803E-01   -0.235507418851931138E+01   -0.242553873402377995E+01   -0.227443611585539088E+03
    0.749435555814049223E+02    0.255049787080323803E-01   -0.235507418851931138E+01   -0.242553873402377995E+01   -0.227443611585539088E+03
    0.730225159283585867E+02    0.245683633951618435E-01   -0.234321433163237502E+01   -0.245521487312405595E+01   -0.227036470839126252E+03
    0.730225159283585867E+02    0.245683633951618435E-01   -0.234321433163237502E+01   -0.245521487312405595E+01   -0.227036470839126252E+03
    0.730225159283585867E+02    0.245683633951618435E-01   -0.234321433163237502E+01   -0.245521487312405595E+01   -0.227036470839126252E+03
    0.730225159283585867E+02    0.245683633951618435E-01   -0.234321433163237502E+01   -0.245521487312405595E+01   -0.227036470839126252E+03
    0.730225159283585867E+02    0.245683633951618435E-01   -0.234321433163237502E+01   -0.245521487312405595E+01   -0.227036470839126252E+03
    0.730225159283585867E+02    0.245683633951618435E-01   -0.234321433163237502E+01   -0.245521487312405595E+01   -0.227036470839126252E+03
    0.730225159283585867E+02    0.245683633951618435E-01   -0.234321433163237502E+01   -0.245521487312405595E+01   -0.227036470839126252E+03
    0.730225159283585867E+02    0.245683633951618435E-01   -0.234321433163237502E+01   -0.245521487312405595E+01   -0.227036470839126252E+03
    0.708971936085916781E+02    0.235741821954967845E-01   -0.232889738398125656E+01   -0.246365695588851619E+01   -0.227515803403254580E+03
    0.708971936085916781E+02    0.235741821954967845E-01   -0.232889738398125656E+01   -0.246365695588851619E+01   -0.227515803403254580E+03
    0.708971936085916781E+02    0.235741821954967845E-01   -0.232889738398125656E+01   -0.246365695588851619E+01   -0.227515803403254580E+03
    0.708971936085916781E+02    0.235741821954967845E-01   -0.232889738398125656E+01   -0.246365695588851619E+01   -0.227515803403254580E+03
    0.708971936085916781E+02    0.235741821954967845E-01   -0.232889738398125656E+01   -0.246365695588851619E+01   -0.227515803403254580E+03
    0.723402592355194827E+02    0.254964073229390319E-01   -0.234681281629462601E+01   -0.247681439549724791E+01   -0.229290085861967526E+03
    0.746736675553058546E+02    0.259579231835477368E-01   -0.238296944300969482E+01   -0.246366533049037795E+01   -0.229115899512308800E+03
    0.733838861710661092E+02    0.250777017671411639E-01   -0.239283317490237035E+01   -0.244626298660126240E+01   -0.227347291442738197E+03
    0.733838861710661092E+02    0.250777017671411639E-01   -0.239283317490237035E+01   -0.244626298660126240E+01   -0.227347291442738197E+03
    0.733838861710661092E+02    0.250777017671411639E-01   -0.239283317490237035E+01   -0.244626298660126240E+01   -0.227347291442738197E+03
    0.733838861710661092E+02    0.250777017671411639E-01   -0.239283317490237035E+01   -0.244626298660126240E+01   -0.227347291442738197E+03
    0.733838861710661092E+02    0.250777017671411639E-01   -0.239283317490237035E+01   -0.244626298660126240E+01   -0.227347291442738197E+03
    0.693875716045152160E+02    0.235566726822730478E-01   -0.238788518401487204E+01   -0.242661387684752494E+01   -0.228399227417045807E+03
    0.693875716045152160E+02    0.235566726822730478E-01   -0.238788518401487204E+01   -0.242661387684752494E+01   -0.228399227417045807E+03
    0.712886185135359085E+02    0.230619876438390957E-01   -0.239623998074995814E+01   -0.246828010872719528E+01   -0.227960966492296166E+03
    0.712886185135359085E+02    0.230619876438390957E-01   -0.239623998074995814E+01   -0.246828010872719528E+01   -0.227960966492296166E+03
    0.712886185135359085E+02    0.230619876438390957E-01   -0.239623998074995814E+01   -0.246828010872719528E+01   -0.227960966492296166E+03
    0.748932471296351139E+02    0.236605253457933713E-01   -0.231648075084081073E+01   -0.251620644568814322E+01   -0.229424903246172192E+03
    0.683246473392762255E+02    0.242746340671784570E-01   -0.233437605913639290E+01   -0.244744790852515814E+01   -0.228519736365820336E+03
    0.683246473392762255E+02    0.242746340671784570E-01   -0.233437605913639290E+01   -0.244744790852515814E+01   -0.228519736365820336E+03
    0.714090792081129564E+02    0.243736426957285590E-01   -0.233367998212719474E+01   -0.243801201893385855E+01   -0.227269896265142961E+03
    0.714090792081129564E+02    0.243736426957285590E-01   -0.233367998212719474E+01   -0.243801201893385855E+01   -0.227269896265142961E+03
    0.714090792081129564E+02    0.243736426957285590E-01   -0.233367998212719474E+01   -0.243801201893385855E+01   -0.227269896265142961E+03
    0.714090792081129564E+02    0.243736426957285590E-01   -0.233367998212719474E+01   -0.243801201893385855E+01   -0.227269896265142961E+03
    0.714090792081129564E+02    0.243736426957285590E-01   -0.233367998212719474E+01   -0.243801201893385855E+01   -0.227269896265142961E+03
    0.714090792081129564E+02    0.243736426957285590E-01   -0.233367998212719474E+01   -0.243801201893385855E+01   -0.227269896265142961E+03
    0.700636214039474083E+02    0.250018809536358931E-01   -0.234548492435548184E+01   -0.243017563673574921E+01   -0.227930480742513481E+03
    0.700636214039474083E+02    0.250018809536358931E-01   -0.234548492435548184E+01   -0.243017563673574921E+01   -0.227930480742513481E+03
    0.700636214039474083E+02    0.250018809536358931E-01   -0.234548492435548184E+01   -0.243017563673574921E+01   -0.227930480742513481E+03
    0.684722082945268369E+02    0.237029566786473508E-01   -0.229836090264532800E+01   -0.240764549359213431E+01   -0.228763298026749993E+03
    0.703163563456575957E+02    0.247112723849579642E-01   -0.221998534251653323E+01   -0.246102095409211552E+01   -0.231235946261855958E+03
    0.695459417266375937E+02    0.257189451869146400E-01   -0.226042849995135420E+01   -0.247567073718336150E+01   -0.231466899260108676E+03
    0.699954405532814405E+02    0.251101548184307563E-01   -0.226251271320733682E+01   -0.243838233407856908E+01   -0.229031958451660330E+03
    0.695547739442110924E+02    0.240134324677820817E-01   -0.238577288580397706E+01   -0.248706040800691541E+01   -0.229598725731600439E+03
    0.729426227137851697E+02    0.230104302980845554E-01   -0.224803112730276222E+01   -0.246223566935261440E+01   -0.229562019776934051E+03
    0.746112087520800031E+02    0.244552005677795004E-01   -0.229078250321992583E+01   -0.243997891832623548E+01   -0.227987358317916261E+03
    0.746112087520800031E+02    0.244552005677795004E-01   -0.229078250321992583E+01   -0.243997891832623548E+01   -0.227987358317916261E+03
    0.688125606447603388E+02    0.263847967864473711E-01   -0.228556333809279177E+01   -0.245685663932557130E+01   -0.231079881231154303E+03
    0.714226800430749620E+02    0.223602040922984448E-01   -0.230628214124523412E+01   -0.239980259417721831E+01   -0.228094859827493963E+03
    0.714226800430749620E+02    0.223602040922984448E-01   -0.230628214124523412E+01   -0.239980259417721831E+01   -0.228094859827493963E+03
    0.715921299675832188E+02    0.243549992294920560E-01   -0.228452956249820538E+01   -0.243474137359448850E+01   -0.227913399117297359E+03
    0.715921299675832188E+02    0.243549992294920560E-01   -0.228452956249820538E+01   -0.243474137359448850E+01   -0.227913399117297359E+03
    0.715921299675832188E+02    0.243549992294920560E-01   -0.228452956249820538E+01   -0.243474137359448850E+01   -0.227913399117297359E+03
    0.689140648816453023E+02    0.235237204434486508E-01   -0.238527553428143779E+01   -0.245740982917672568E+01   -0.228898645955581827E+03
    0.689140648816453023E+02    0.235237204434486508E-01   -0.238527553428143779E+01   -0.245740982917672568E+01   -0.228898645955581827E+03
    0.697297298683104714E+02    0.243661533402066595E-01   -0.221216676881439112E+01   -0.242030393143158573E+01   -0.230886946772999693E+03
    0.713722171366748057E+02    0.232398517371432585E-01   -0.230458225412257711E+01   -0.236426670858572452E+01   -0.229210616649893012E+03
    0.691309814618696805E+02    0.235691981522571058E-01   -0.236540083152679337E+01   -0.242251126919384285E+01   -0.228250667792591457E+03
    0.691309814618696805E+02    0.235691981522571058E-01   -0.236540083152679337E+01   -0.242251126919384285E+01   -0.228250667792591457E+03
    0.724928480913492592E+02    0.235688675665019845E-01   -0.229152556200294732E+01   -0.245602356332549565E+01   -0.227795082293457483E+03
    0.724928480913492592E+02    0.235688675665019845E-01   -0.229152556200294732E+01   -0.245602356332549565E+01   -0.227795082293457483E+03
    0.724928480913492592E+02    0.235688675665019845E-01   -0.229152556200294732E+01   -0.245602356332549565E+01   -0.227795082293457483E+03
    0.708340479687215065E+02    0.249640741042973513E-01   -0.227752733313229871E+01   -0.252960167859832374E+01   -0.232200365965323527E+03
    0.724519062493418460E+02    0.230384382886175895E-01   -0.224529132424811095E+01   -0.241461855654471780E+01   -0.229122938926710646E+03
    0.702098764092868208E+02    0.226569851502017201E-01   -0.228203354393872759E+01   -0.247385106740572702E+01   -0.229357633964181844E+03
    0.714229096943343222E+02    0.231020927197130681E-01   -0.217539537459351084E+01   -0.244606656810209389E+01   -0.232090231995673804E+03
    0.742035506728460916E+02    0.221439434256380449E-01   -0.226550086931321193E+01   -0.243943338081650518E+01   -0.227875503888834828E+03
    0.742035506728460916E+02    0.221439434256380449E-01   -0.226550086931321193E+01   -0.243943338081650518E+01   -0.227875503888834828E+03
    0.742035506728460916E+02    0.221439434256380449E-01   -0.226550086931321193E+01   -0.243943338081650518E+01   -0.227875503888834828E+03
    0.742035506728460916E+02    0.221439434256380449E-01   -0.226550086931321193E+01   -0.243943338081650518E+01   -0.227875503888834828E+03
    0.720989197793123253E+02    0.227469612256137772E-01   -0.225514301569182862E+01   -0.242551027290756682E+01   -0.228891808835482294E+03
    0.706375217814093759E+02    0.235150415351548618E-01   -0.241487546025073563E+01   -0.244940424950048818E+01   -0.228632207397552662E+03
    0.706375217814093759E+02    0.235150415351548618E-01   -0.241487546025073563E+01   -0.244940424950048818E+01   -0.228632207397552662E+03
    0.728883029998533658E+02    0.236763722308420271E-01   -0.235566357345704835E+01   -0.241051419688610746E+01   -0.226895616628946840E+03
    0.728883029998533658E+02    0.236763722308420271E-01   -0.235566357345704835E+01   -0.241051419688610746E+01   -0.226895616628946840E+03
    0.728883029998533658E+02    0.236763722308420271E-01   -0.235566357345704835E+01   -0.241051419688610746E+01   -0.226895616628946840E+03
    0.728883029998533658E+02    0.236763722308420271E-01   -0.235566357345704835E+01   -0.241051419688610746E+01   -0.226895616628946840E+03
    0.728883029998533658E+02    0.236763722308420271E-01   -0.235566357345704835E+01   -0.241051419688610746E+01   -0.226895616628946840E+03
    0.728883029998533658E+02    0.236763722308420271E-01   -0.235566357345704835E+01   -0.241051419688610746E+01   -0.226895616628946840E+03
    0.728883029998533658E+02    0.236763722308420271E-01   -0.235566357345704835E+01   -0.241051419688610746E+01   -0.226895616628946840E+03
    0.728883029998533658E+02    0.236763722308420271E-01   -0.235566357345704835E+01   -0.241051419688610746E+01   -0.226895616628946840E+03
    0.728883029998533658E+02    0.236763722308420271E-01   -0.235566357345704835E+01   -0.241051419688610746E+01   -0.226895616628946840E+03
    0.733305004412149231E+02    0.232759158286490568E-01   -0.234256453963214017E+01   -0.243466629312371108E+01   -0.226615545172287085E+03
    0.733305004412149231E+02    0.232759158286490568E-01   -0.234256453963214017E+01   -0.243466629312371108E+01   -0.226615545172287085E+03
    0.733305004412149231E+02    0.232759158286490568E-01   -0.234256453963214017E+01   -0.243466629312371108E+01   -0.226615545172287085E+03
    0.733305004412149231E+02    0.232759158286490568E-01   -0.234256453963214017E+01   -0.243466629312371108E+01   -0.226615545172287085E+03
    0.733305004412149231E+02    0.232759158286490568E-01   -0.234256453963214017E+01   -0.243466629312371108E+01   -0.226615545172287085E+03
    0.733305004412149231E+02    0.232759158286490568E-01   -0.234256453963214017E+01   -0.243466629312371108E+01   -0.226615545172287085E+03
    0.733305004412149231E+02    0.232759158286490568E-01   -0.234256453963214017E+01   -0.243466629312371108E+01   -0.226615545172287085E+03
    0.733305004412149231E+02    0.232759158286490568E-01   -0.234256453963214017E+01   -0.243466629312371108E+01   -0.226615545172287085E+03
    0.733305004412149231E+02    0.232759158286490568E-01   -0.234256453963214017E+01   -0.243466629312371108E+01   -0.226615545172287085E+03
    0.733305004412149231E+02    0.232759158286490568E-01   -0.234256453963214017E+01   -0.243466629312371108E+01   -0.226615545172287085E+03
    0.733305004412149231E+02    0.232759158286490568E-01   -0.234256453963214017E+01   -0.243466629312371108E+01   -0.226615545172287085E+03
    0.699783277872707856E+02    0.231255490546286614E-01   -0.239216676386707761E+01   -0.248424262139474816E+01   -0.228797181880626596E+03
    0.721832861923973894E+02    0.233456035458215160E-01   -0.231998262571027691E+01   -0.253654947022647592E+01   -0.231031058522056412E+03
    0.690438940063799578E+02    0.251289252505512498E-01   -0.235023527842919666E+01   -0.243976915557110674E+01   -0.228309554625626191E+03
    0.690438940063799578E+02    0.251289252505512498E-01   -0.235023527842919666E+01   -0.243976915557110674E+01   -0.228309554625626191E+03
    0.687598698940961413E+02    0.230650130918950008E-01   -0.239168620223930750E+01   -0.246400645053797707E+01   -0.229195637216923245E+03
    0.742634504649910809E+02    0.262598367833736385E-01   -0.228130799946578033E+01   -0.245300982131475154E+01   -0.231043211747835869E+03
    0.715041002868556177E+02    0.245390446571290589E-01   -0.224120782011176400E+01   -0.242568948080556890E+01   -0.229143824899482979E+03
    0.685697800048201032E+02    0.244989887485950637E-01   -0.231774475177369776E+01   -0.239007154039404579E+01   -0.228878081770143496E+03
    0.706557228447909154E+02    0.211071194444885750E-01   -0.228758197272027841E+01   -0.245754116918832244E+01   -0.229856256989602599E+03
    0.705460453171204591E+02    0.224761237072702118E-01   -0.229489428734582024E+01   -0.248929300841094037E+01   -0.229968016170109422E+03
    0.674867933624726959E+02    0.219055750888810623E-01   -0.236462080199615743E+01   -0.246830909162452272E+01   -0.230124463889902188E+03
    0.712731424806113125E+02    0.262053836919053477E-01   -0.242199510504422033E+01   -0.239711030962932181E+01   -0.229187837416581289E+03
    0.732310806088447066E+02    0.261626212863454444E-01   -0.233934150511332462E+01   -0.239196767397323207E+01   -0.228831221801735182E+03
    0.732310806088447066E+02    0.261626212863454444E-01   -0.233934150511332462E+01   -0.239196767397323207E+01   -0.228831221801735182E+03
    0.718238438215444148E+02    0.253390387594802126E-01   -0.244738207403320818E+01   -0.239306675496731414E+01   -0.228708287529590081E+03
    0.710687199955116569E+02    0.212129690124357555E-01   -0.233055022963868685E+01   -0.244986529098268280E+01   -0.228480834230405350E+03
    0.710687199955116569E+02    0.212129690124357555E-01   -0.233055022963868685E+01   -0.244986529098268280E+01   -0.228480834230405350E+03
    0.719995745175961019E+02    0.203836455434767486E-01   -0.227578591982187284E+01   -0.248914636848965909E+01   -0.230708115380418434E+03
    0.661825992993051102E+02    0.228620753604833263E-01   -0.234615767412110410E+01   -0.246895756556634893E+01   -0.230310366214807630E+03
    0.729800128084534663E+02    0.233216908651751320E-01   -0.232896337291518174E+01   -0.253502909930711429E+01   -0.230625251365937913E+03
    0.743743719118574234E+02    0.264431226655944054E-01   -0.235110724881814814E+01   -0.237259558539388493E+01   -0.229380762644854656E+03
    0.726108906389760307E+02    0.242380264136050107E-01   -0.239587201330331201E+01   -0.241621606227554109E+01   -0.227516003642040374E+03
    0.726108906389760307E+02    0.242380264136050107E-01   -0.239587201330331201E+01   -0.241621606227554109E+01   -0.227516003642040374E+03
    0.726108906389760307E+02    0.242380264136050107E-01   -0.239587201330331201E+01   -0.241621606227554109E+01   -0.227516003642040374E+03
    0.726108906389760307E+02    0.242380264136050107E-01   -0.239587201330331201E+01   -0.241621606227554109E+01   -0.227516003642040374E+03
    0.726108906389760307E+02    0.242380264136050107E-01   -0.239587201330331201E+01   -0.241621606227554109E+01   -0.227516003642040374E+03
    0.690482494882278388E+02    0.237503504196064676E-01   -0.231733323708038697E+01   -0.245226152522792562E+01   -0.228354737244566792E+03
    0.690482494882278388E+02    0.237503504196064676E-01   -0.231733323708038697E+01   -0.245226152522792562E+01   -0.228354737244566792E+03
